digraph Tree {
node [shape=box] ;
0 [label="gyr_phone_x_temp_std_ws_120 <= 0.679\ngini = 0.805\nsamples = 2018\nvalue = [252, 138, 158, 76, 175, 148, 299, 40, 732]\nclass = undefined"] ;
1 [label="press_phone_pressure_temp_mean_ws_120 <= 1011.795\ngini = 0.766\nsamples = 1563\nvalue = [252, 138, 158, 2, 175, 138, 17, 40, 643]\nclass = undefined"] ;
0 -> 1 [labeldistance=2.5, labelangle=45, headlabel="True"] ;
2 [label="gyr_phone_y_freq_1.0_Hz_ws_40 <= -3.686\ngini = 0.005\nsamples = 381\nvalue = [0, 0, 0, 0, 0, 0, 1, 0, 380]\nclass = undefined"] ;
1 -> 2 ;
3 [label="gini = 0.444\nsamples = 3\nvalue = [0, 0, 0, 0, 0, 0, 1, 0, 2]\nclass = undefined"] ;
2 -> 3 ;
4 [label="gini = 0.0\nsamples = 378\nvalue = [0, 0, 0, 0, 0, 0, 0, 0, 378]\nclass = undefined"] ;
2 -> 4 ;
5 [label="press_phone_pressure_temp_mean_ws_120 <= 1029.115\ngini = 0.837\nsamples = 1182\nvalue = [252, 138, 158, 2, 175, 138, 16, 40, 263]\nclass = undefined"] ;
1 -> 5 ;
6 [label="acc_phone_y_freq_0.0_Hz_ws_40 <= 66.569\ngini = 0.758\nsamples = 708\nvalue = [252, 138, 0, 2, 0, 138, 14, 28, 136]\nclass = labelDriving"] ;
5 -> 6 ;
7 [label="acc_phone_y_freq_0.0_Hz_ws_40 <= -56.408\ngini = 0.601\nsamples = 424\nvalue = [242, 1, 0, 2, 0, 75, 7, 11, 86]\nclass = labelDriving"] ;
6 -> 7 ;
8 [label="press_phone_pressure_temp_mean_ws_120 <= 1028.915\ngini = 0.632\nsamples = 179\nvalue = [11, 0, 0, 1, 0, 75, 5, 10, 77]\nclass = undefined"] ;
7 -> 8 ;
9 [label="acc_phone_y_freq_0.0_Hz_ws_40 <= -120.872\ngini = 0.496\nsamples = 110\nvalue = [11, 0, 0, 1, 0, 10, 2, 10, 76]\nclass = undefined"] ;
8 -> 9 ;
10 [label="mag_watch_y_pse <= 0.002\ngini = 0.347\nsamples = 83\nvalue = [0, 0, 0, 0, 0, 8, 0, 9, 66]\nclass = undefined"] ;
9 -> 10 ;
11 [label="gini = 0.0\nsamples = 4\nvalue = [0, 0, 0, 0, 0, 4, 0, 0, 0]\nclass = labelStanding"] ;
10 -> 11 ;
12 [label="press_phone_pressure_temp_mean_ws_120 <= 1028.549\ngini = 0.286\nsamples = 79\nvalue = [0, 0, 0, 0, 0, 4, 0, 9, 66]\nclass = undefined"] ;
10 -> 12 ;
13 [label="gini = 0.0\nsamples = 37\nvalue = [0, 0, 0, 0, 0, 0, 0, 0, 37]\nclass = undefined"] ;
12 -> 13 ;
14 [label="press_phone_pressure_temp_mean_ws_120 <= 1028.602\ngini = 0.468\nsamples = 42\nvalue = [0, 0, 0, 0, 0, 4, 0, 9, 29]\nclass = undefined"] ;
12 -> 14 ;
15 [label="gyr_phone_y_freq_1.0_Hz_ws_40 <= -1.137\ngini = 0.18\nsamples = 10\nvalue = [0, 0, 0, 0, 0, 0, 0, 9, 1]\nclass = labelWashingHands"] ;
14 -> 15 ;
16 [label="gini = 0.5\nsamples = 2\nvalue = [0, 0, 0, 0, 0, 0, 0, 1, 1]\nclass = labelWashingHands"] ;
15 -> 16 ;
17 [label="gini = 0.0\nsamples = 8\nvalue = [0, 0, 0, 0, 0, 0, 0, 8, 0]\nclass = labelWashingHands"] ;
15 -> 17 ;
18 [label="mag_phone_z_max_freq <= 0.25\ngini = 0.219\nsamples = 32\nvalue = [0, 0, 0, 0, 0, 4, 0, 0, 28]\nclass = undefined"] ;
14 -> 18 ;
19 [label="gini = 0.0\nsamples = 28\nvalue = [0, 0, 0, 0, 0, 0, 0, 0, 28]\nclass = undefined"] ;
18 -> 19 ;
20 [label="gini = 0.0\nsamples = 4\nvalue = [0, 0, 0, 0, 0, 4, 0, 0, 0]\nclass = labelStanding"] ;
18 -> 20 ;
21 [label="press_phone_pressure_temp_mean_ws_120 <= 1012.542\ngini = 0.683\nsamples = 27\nvalue = [11, 0, 0, 1, 0, 2, 2, 1, 10]\nclass = labelDriving"] ;
9 -> 21 ;
22 [label="gini = 0.0\nsamples = 9\nvalue = [0, 0, 0, 0, 0, 0, 0, 0, 9]\nclass = undefined"] ;
21 -> 22 ;
23 [label="gyr_phone_x_temp_std_ws_120 <= 0.258\ngini = 0.593\nsamples = 18\nvalue = [11, 0, 0, 1, 0, 2, 2, 1, 1]\nclass = labelDriving"] ;
21 -> 23 ;
24 [label="gini = 0.0\nsamples = 11\nvalue = [11, 0, 0, 0, 0, 0, 0, 0, 0]\nclass = labelDriving"] ;
23 -> 24 ;
25 [label="press_phone_pressure_temp_mean_ws_120 <= 1028.718\ngini = 0.776\nsamples = 7\nvalue = [0, 0, 0, 1, 0, 2, 2, 1, 1]\nclass = labelStanding"] ;
23 -> 25 ;
26 [label="gyr_watch_y_freq_weighted <= 1.608\ngini = 0.72\nsamples = 5\nvalue = [0, 0, 0, 1, 0, 2, 0, 1, 1]\nclass = labelStanding"] ;
25 -> 26 ;
27 [label="gini = 0.0\nsamples = 2\nvalue = [0, 0, 0, 0, 0, 2, 0, 0, 0]\nclass = labelStanding"] ;
26 -> 27 ;
28 [label="gini = 0.667\nsamples = 3\nvalue = [0, 0, 0, 1, 0, 0, 0, 1, 1]\nclass = labelRunning"] ;
26 -> 28 ;
29 [label="gini = 0.0\nsamples = 2\nvalue = [0, 0, 0, 0, 0, 0, 2, 0, 0]\nclass = labelWalking"] ;
25 -> 29 ;
30 [label="gyr_phone_x_temp_std_ws_120 <= 0.332\ngini = 0.11\nsamples = 69\nvalue = [0, 0, 0, 0, 0, 65, 3, 0, 1]\nclass = labelStanding"] ;
8 -> 30 ;
31 [label="gyr_phone_y_freq_1.0_Hz_ws_40 <= -1.137\ngini = 0.03\nsamples = 66\nvalue = [0, 0, 0, 0, 0, 65, 0, 0, 1]\nclass = labelStanding"] ;
30 -> 31 ;
32 [label="gini = 0.5\nsamples = 2\nvalue = [0, 0, 0, 0, 0, 1, 0, 0, 1]\nclass = labelStanding"] ;
31 -> 32 ;
33 [label="gini = 0.0\nsamples = 64\nvalue = [0, 0, 0, 0, 0, 64, 0, 0, 0]\nclass = labelStanding"] ;
31 -> 33 ;
34 [label="gini = 0.0\nsamples = 3\nvalue = [0, 0, 0, 0, 0, 0, 3, 0, 0]\nclass = labelWalking"] ;
30 -> 34 ;
35 [label="gyr_phone_x_temp_std_ws_120 <= 0.355\ngini = 0.11\nsamples = 245\nvalue = [231, 1, 0, 1, 0, 0, 2, 1, 9]\nclass = labelDriving"] ;
7 -> 35 ;
36 [label="press_phone_pressure_temp_mean_ws_120 <= 1028.975\ngini = 0.034\nsamples = 231\nvalue = [227, 1, 0, 0, 0, 0, 1, 0, 2]\nclass = labelDriving"] ;
35 -> 36 ;
37 [label="acc_phone_x_freq_1.9_Hz_ws_40 <= -2.005\ngini = 0.017\nsamples = 229\nvalue = [227, 1, 0, 0, 0, 0, 0, 0, 1]\nclass = labelDriving"] ;
36 -> 37 ;
38 [label="gini = 0.5\nsamples = 2\nvalue = [1, 1, 0, 0, 0, 0, 0, 0, 0]\nclass = labelDriving"] ;
37 -> 38 ;
39 [label="acc_phone_y_freq_0.0_Hz_ws_40 <= -52.948\ngini = 0.009\nsamples = 227\nvalue = [226, 0, 0, 0, 0, 0, 0, 0, 1]\nclass = labelDriving"] ;
37 -> 39 ;
40 [label="acc_phone_y_freq_0.0_Hz_ws_40 <= -54.793\ngini = 0.375\nsamples = 4\nvalue = [3, 0, 0, 0, 0, 0, 0, 0, 1]\nclass = labelDriving"] ;
39 -> 40 ;
41 [label="gini = 0.0\nsamples = 2\nvalue = [2, 0, 0, 0, 0, 0, 0, 0, 0]\nclass = labelDriving"] ;
40 -> 41 ;
42 [label="gini = 0.5\nsamples = 2\nvalue = [1, 0, 0, 0, 0, 0, 0, 0, 1]\nclass = labelDriving"] ;
40 -> 42 ;
43 [label="gini = 0.0\nsamples = 223\nvalue = [223, 0, 0, 0, 0, 0, 0, 0, 0]\nclass = labelDriving"] ;
39 -> 43 ;
44 [label="gini = 0.5\nsamples = 2\nvalue = [0, 0, 0, 0, 0, 0, 1, 0, 1]\nclass = labelWalking"] ;
36 -> 44 ;
45 [label="mag_phone_z_max_freq <= 0.05\ngini = 0.653\nsamples = 14\nvalue = [4, 0, 0, 1, 0, 0, 1, 1, 7]\nclass = undefined"] ;
35 -> 45 ;
46 [label="acc_phone_y_freq_0.0_Hz_ws_40 <= 38.427\ngini = 0.406\nsamples = 8\nvalue = [0, 0, 0, 0, 0, 0, 1, 1, 6]\nclass = undefined"] ;
45 -> 46 ;
47 [label="gini = 0.0\nsamples = 6\nvalue = [0, 0, 0, 0, 0, 0, 0, 0, 6]\nclass = undefined"] ;
46 -> 47 ;
48 [label="gini = 0.5\nsamples = 2\nvalue = [0, 0, 0, 0, 0, 0, 1, 1, 0]\nclass = labelWalking"] ;
46 -> 48 ;
49 [label="mag_watch_y_pse <= 0.439\ngini = 0.5\nsamples = 6\nvalue = [4, 0, 0, 1, 0, 0, 0, 0, 1]\nclass = labelDriving"] ;
45 -> 49 ;
50 [label="gini = 0.5\nsamples = 2\nvalue = [0, 0, 0, 1, 0, 0, 0, 0, 1]\nclass = labelRunning"] ;
49 -> 50 ;
51 [label="gini = 0.0\nsamples = 4\nvalue = [4, 0, 0, 0, 0, 0, 0, 0, 0]\nclass = labelDriving"] ;
49 -> 51 ;
52 [label="acc_phone_y_freq_0.0_Hz_ws_40 <= 313.09\ngini = 0.682\nsamples = 284\nvalue = [10, 137, 0, 0, 0, 63, 7, 17, 50]\nclass = labelEating"] ;
6 -> 52 ;
53 [label="gyr_phone_x_temp_std_ws_120 <= 0.057\ngini = 0.5\nsamples = 207\nvalue = [10, 137, 0, 0, 0, 2, 6, 2, 50]\nclass = labelEating"] ;
52 -> 53 ;
54 [label="gini = 0.0\nsamples = 111\nvalue = [0, 111, 0, 0, 0, 0, 0, 0, 0]\nclass = labelEating"] ;
53 -> 54 ;
55 [label="press_phone_pressure_temp_mean_ws_120 <= 1028.86\ngini = 0.64\nsamples = 96\nvalue = [10, 26, 0, 0, 0, 2, 6, 2, 50]\nclass = undefined"] ;
53 -> 55 ;
56 [label="press_phone_pressure_temp_mean_ws_120 <= 1028.543\ngini = 0.676\nsamples = 67\nvalue = [9, 26, 0, 0, 0, 0, 4, 2, 26]\nclass = labelEating"] ;
55 -> 56 ;
57 [label="mag_watch_y_pse <= 1.062\ngini = 0.641\nsamples = 50\nvalue = [6, 13, 0, 0, 0, 0, 4, 1, 26]\nclass = undefined"] ;
56 -> 57 ;
58 [label="gyr_phone_x_temp_std_ws_120 <= 0.094\ngini = 0.604\nsamples = 41\nvalue = [6, 6, 0, 0, 0, 0, 4, 1, 24]\nclass = undefined"] ;
57 -> 58 ;
59 [label="gini = 0.0\nsamples = 3\nvalue = [3, 0, 0, 0, 0, 0, 0, 0, 0]\nclass = labelDriving"] ;
58 -> 59 ;
60 [label="press_phone_pressure_temp_mean_ws_120 <= 1012.499\ngini = 0.558\nsamples = 38\nvalue = [3, 6, 0, 0, 0, 0, 4, 1, 24]\nclass = undefined"] ;
58 -> 60 ;
61 [label="mag_phone_z_max_freq <= 0.05\ngini = 0.444\nsamples = 6\nvalue = [0, 0, 0, 0, 0, 0, 4, 0, 2]\nclass = labelWalking"] ;
60 -> 61 ;
62 [label="gini = 0.0\nsamples = 2\nvalue = [0, 0, 0, 0, 0, 0, 0, 0, 2]\nclass = undefined"] ;
61 -> 62 ;
63 [label="gini = 0.0\nsamples = 4\nvalue = [0, 0, 0, 0, 0, 0, 4, 0, 0]\nclass = labelWalking"] ;
61 -> 63 ;
64 [label="acc_phone_x_freq_1.9_Hz_ws_40 <= 2.483\ngini = 0.482\nsamples = 32\nvalue = [3, 6, 0, 0, 0, 0, 0, 1, 22]\nclass = undefined"] ;
60 -> 64 ;
65 [label="mag_phone_z_max_freq <= 0.25\ngini = 0.306\nsamples = 23\nvalue = [1, 2, 0, 0, 0, 0, 0, 1, 19]\nclass = undefined"] ;
64 -> 65 ;
66 [label="acc_phone_y_freq_0.0_Hz_ws_40 <= 99.583\ngini = 0.185\nsamples = 20\nvalue = [0, 1, 0, 0, 0, 0, 0, 1, 18]\nclass = undefined"] ;
65 -> 66 ;
67 [label="gini = 0.5\nsamples = 2\nvalue = [0, 1, 0, 0, 0, 0, 0, 0, 1]\nclass = labelEating"] ;
66 -> 67 ;
68 [label="acc_phone_x_freq_1.9_Hz_ws_40 <= -5.608\ngini = 0.105\nsamples = 18\nvalue = [0, 0, 0, 0, 0, 0, 0, 1, 17]\nclass = undefined"] ;
66 -> 68 ;
69 [label="gini = 0.5\nsamples = 2\nvalue = [0, 0, 0, 0, 0, 0, 0, 1, 1]\nclass = labelWashingHands"] ;
68 -> 69 ;
70 [label="gini = 0.0\nsamples = 16\nvalue = [0, 0, 0, 0, 0, 0, 0, 0, 16]\nclass = undefined"] ;
68 -> 70 ;
71 [label="gini = 0.667\nsamples = 3\nvalue = [1, 1, 0, 0, 0, 0, 0, 0, 1]\nclass = labelDriving"] ;
65 -> 71 ;
72 [label="acc_watch_y_freq_0.5_Hz_ws_40 <= 6.065\ngini = 0.642\nsamples = 9\nvalue = [2, 4, 0, 0, 0, 0, 0, 0, 3]\nclass = labelEating"] ;
64 -> 72 ;
73 [label="gyr_watch_y_freq_weighted <= 0.81\ngini = 0.48\nsamples = 5\nvalue = [2, 3, 0, 0, 0, 0, 0, 0, 0]\nclass = labelEating"] ;
72 -> 73 ;
74 [label="gini = 0.0\nsamples = 3\nvalue = [0, 3, 0, 0, 0, 0, 0, 0, 0]\nclass = labelEating"] ;
73 -> 74 ;
75 [label="gini = 0.0\nsamples = 2\nvalue = [2, 0, 0, 0, 0, 0, 0, 0, 0]\nclass = labelDriving"] ;
73 -> 75 ;
76 [label="mag_watch_y_pse <= 0.592\ngini = 0.375\nsamples = 4\nvalue = [0, 1, 0, 0, 0, 0, 0, 0, 3]\nclass = undefined"] ;
72 -> 76 ;
77 [label="gini = 0.5\nsamples = 2\nvalue = [0, 1, 0, 0, 0, 0, 0, 0, 1]\nclass = labelEating"] ;
76 -> 77 ;
78 [label="gini = 0.0\nsamples = 2\nvalue = [0, 0, 0, 0, 0, 0, 0, 0, 2]\nclass = undefined"] ;
76 -> 78 ;
79 [label="acc_watch_y_freq_0.5_Hz_ws_40 <= -8.334\ngini = 0.346\nsamples = 9\nvalue = [0, 7, 0, 0, 0, 0, 0, 0, 2]\nclass = labelEating"] ;
57 -> 79 ;
80 [label="gini = 0.0\nsamples = 2\nvalue = [0, 0, 0, 0, 0, 0, 0, 0, 2]\nclass = undefined"] ;
79 -> 80 ;
81 [label="gini = 0.0\nsamples = 7\nvalue = [0, 7, 0, 0, 0, 0, 0, 0, 0]\nclass = labelEating"] ;
79 -> 81 ;
82 [label="mag_watch_z_freq_0.9_Hz_ws_40 <= 21.277\ngini = 0.381\nsamples = 17\nvalue = [3, 13, 0, 0, 0, 0, 0, 1, 0]\nclass = labelEating"] ;
56 -> 82 ;
83 [label="gyr_phone_x_temp_std_ws_120 <= 0.377\ngini = 0.133\nsamples = 14\nvalue = [0, 13, 0, 0, 0, 0, 0, 1, 0]\nclass = labelEating"] ;
82 -> 83 ;
84 [label="gini = 0.0\nsamples = 12\nvalue = [0, 12, 0, 0, 0, 0, 0, 0, 0]\nclass = labelEating"] ;
83 -> 84 ;
85 [label="gini = 0.5\nsamples = 2\nvalue = [0, 1, 0, 0, 0, 0, 0, 1, 0]\nclass = labelEating"] ;
83 -> 85 ;
86 [label="gini = 0.0\nsamples = 3\nvalue = [3, 0, 0, 0, 0, 0, 0, 0, 0]\nclass = labelDriving"] ;
82 -> 86 ;
87 [label="gyr_phone_x_temp_std_ws_120 <= 0.23\ngini = 0.304\nsamples = 29\nvalue = [1, 0, 0, 0, 0, 2, 2, 0, 24]\nclass = undefined"] ;
55 -> 87 ;
88 [label="gyr_phone_x_temp_std_ws_120 <= 0.21\ngini = 0.64\nsamples = 5\nvalue = [0, 0, 0, 0, 0, 1, 2, 0, 2]\nclass = labelWalking"] ;
87 -> 88 ;
89 [label="gini = 0.444\nsamples = 3\nvalue = [0, 0, 0, 0, 0, 1, 0, 0, 2]\nclass = undefined"] ;
88 -> 89 ;
90 [label="gini = 0.0\nsamples = 2\nvalue = [0, 0, 0, 0, 0, 0, 2, 0, 0]\nclass = labelWalking"] ;
88 -> 90 ;
91 [label="acc_watch_y_freq_0.5_Hz_ws_40 <= -6.121\ngini = 0.156\nsamples = 24\nvalue = [1, 0, 0, 0, 0, 1, 0, 0, 22]\nclass = undefined"] ;
87 -> 91 ;
92 [label="gini = 0.5\nsamples = 2\nvalue = [0, 0, 0, 0, 0, 1, 0, 0, 1]\nclass = labelStanding"] ;
91 -> 92 ;
93 [label="acc_phone_x_freq_1.9_Hz_ws_40 <= -1.63\ngini = 0.087\nsamples = 22\nvalue = [1, 0, 0, 0, 0, 0, 0, 0, 21]\nclass = undefined"] ;
91 -> 93 ;
94 [label="gini = 0.5\nsamples = 2\nvalue = [1, 0, 0, 0, 0, 0, 0, 0, 1]\nclass = labelDriving"] ;
93 -> 94 ;
95 [label="gini = 0.0\nsamples = 20\nvalue = [0, 0, 0, 0, 0, 0, 0, 0, 20]\nclass = undefined"] ;
93 -> 95 ;
96 [label="press_phone_pressure_temp_mean_ws_120 <= 1020.88\ngini = 0.334\nsamples = 77\nvalue = [0, 0, 0, 0, 0, 61, 1, 15, 0]\nclass = labelStanding"] ;
52 -> 96 ;
97 [label="mag_watch_y_pse <= 0.86\ngini = 0.032\nsamples = 62\nvalue = [0, 0, 0, 0, 0, 61, 1, 0, 0]\nclass = labelStanding"] ;
96 -> 97 ;
98 [label="gini = 0.0\nsamples = 60\nvalue = [0, 0, 0, 0, 0, 60, 0, 0, 0]\nclass = labelStanding"] ;
97 -> 98 ;
99 [label="gini = 0.5\nsamples = 2\nvalue = [0, 0, 0, 0, 0, 1, 1, 0, 0]\nclass = labelStanding"] ;
97 -> 99 ;
100 [label="gini = 0.0\nsamples = 15\nvalue = [0, 0, 0, 0, 0, 0, 0, 15, 0]\nclass = labelWashingHands"] ;
96 -> 100 ;
101 [label="acc_phone_y_freq_0.0_Hz_ws_40 <= 2.512\ngini = 0.68\nsamples = 474\nvalue = [0, 0, 158, 0, 175, 0, 2, 12, 127]\nclass = labelSitting"] ;
5 -> 101 ;
102 [label="acc_phone_y_freq_0.0_Hz_ws_40 <= -165.293\ngini = 0.482\nsamples = 253\nvalue = [0, 0, 0, 0, 166, 0, 1, 12, 74]\nclass = labelSitting"] ;
101 -> 102 ;
103 [label="press_phone_pressure_temp_mean_ws_120 <= 1029.319\ngini = 0.257\nsamples = 74\nvalue = [0, 0, 0, 0, 0, 0, 1, 10, 63]\nclass = undefined"] ;
102 -> 103 ;
104 [label="gyr_phone_x_temp_std_ws_120 <= 0.126\ngini = 0.503\nsamples = 28\nvalue = [0, 0, 0, 0, 0, 0, 1, 10, 17]\nclass = undefined"] ;
103 -> 104 ;
105 [label="gini = 0.0\nsamples = 4\nvalue = [0, 0, 0, 0, 0, 0, 0, 4, 0]\nclass = labelWashingHands"] ;
104 -> 105 ;
106 [label="acc_watch_y_freq_0.5_Hz_ws_40 <= 6.748\ngini = 0.434\nsamples = 24\nvalue = [0, 0, 0, 0, 0, 0, 1, 6, 17]\nclass = undefined"] ;
104 -> 106 ;
107 [label="acc_phone_x_freq_1.9_Hz_ws_40 <= 0.073\ngini = 0.368\nsamples = 22\nvalue = [0, 0, 0, 0, 0, 0, 1, 4, 17]\nclass = undefined"] ;
106 -> 107 ;
108 [label="acc_watch_y_freq_0.5_Hz_ws_40 <= -4.351\ngini = 0.117\nsamples = 16\nvalue = [0, 0, 0, 0, 0, 0, 0, 1, 15]\nclass = undefined"] ;
107 -> 108 ;
109 [label="gini = 0.5\nsamples = 2\nvalue = [0, 0, 0, 0, 0, 0, 0, 1, 1]\nclass = labelWashingHands"] ;
108 -> 109 ;
110 [label="gini = 0.0\nsamples = 14\nvalue = [0, 0, 0, 0, 0, 0, 0, 0, 14]\nclass = undefined"] ;
108 -> 110 ;
111 [label="gyr_phone_x_temp_std_ws_120 <= 0.451\ngini = 0.611\nsamples = 6\nvalue = [0, 0, 0, 0, 0, 0, 1, 3, 2]\nclass = labelWashingHands"] ;
107 -> 111 ;
112 [label="gini = 0.0\nsamples = 3\nvalue = [0, 0, 0, 0, 0, 0, 0, 3, 0]\nclass = labelWashingHands"] ;
111 -> 112 ;
113 [label="gini = 0.444\nsamples = 3\nvalue = [0, 0, 0, 0, 0, 0, 1, 0, 2]\nclass = undefined"] ;
111 -> 113 ;
114 [label="gini = 0.0\nsamples = 2\nvalue = [0, 0, 0, 0, 0, 0, 0, 2, 0]\nclass = labelWashingHands"] ;
106 -> 114 ;
115 [label="gini = 0.0\nsamples = 46\nvalue = [0, 0, 0, 0, 0, 0, 0, 0, 46]\nclass = undefined"] ;
103 -> 115 ;
116 [label="mag_phone_z_max_freq <= 0.05\ngini = 0.136\nsamples = 179\nvalue = [0, 0, 0, 0, 166, 0, 0, 2, 11]\nclass = labelSitting"] ;
102 -> 116 ;
117 [label="acc_phone_x_freq_1.9_Hz_ws_40 <= -3.781\ngini = 0.046\nsamples = 170\nvalue = [0, 0, 0, 0, 166, 0, 0, 0, 4]\nclass = labelSitting"] ;
116 -> 117 ;
118 [label="gini = 0.0\nsamples = 2\nvalue = [0, 0, 0, 0, 0, 0, 0, 0, 2]\nclass = undefined"] ;
117 -> 118 ;
119 [label="acc_phone_y_freq_0.0_Hz_ws_40 <= -18.917\ngini = 0.024\nsamples = 168\nvalue = [0, 0, 0, 0, 166, 0, 0, 0, 2]\nclass = labelSitting"] ;
117 -> 119 ;
120 [label="gini = 0.0\nsamples = 165\nvalue = [0, 0, 0, 0, 165, 0, 0, 0, 0]\nclass = labelSitting"] ;
119 -> 120 ;
121 [label="gini = 0.444\nsamples = 3\nvalue = [0, 0, 0, 0, 1, 0, 0, 0, 2]\nclass = undefined"] ;
119 -> 121 ;
122 [label="gyr_phone_y_freq_1.0_Hz_ws_40 <= 0.136\ngini = 0.346\nsamples = 9\nvalue = [0, 0, 0, 0, 0, 0, 0, 2, 7]\nclass = undefined"] ;
116 -> 122 ;
123 [label="gini = 0.0\nsamples = 7\nvalue = [0, 0, 0, 0, 0, 0, 0, 0, 7]\nclass = undefined"] ;
122 -> 123 ;
124 [label="gini = 0.0\nsamples = 2\nvalue = [0, 0, 0, 0, 0, 0, 0, 2, 0]\nclass = labelWashingHands"] ;
122 -> 124 ;
125 [label="mag_watch_y_pse <= 0.004\ngini = 0.43\nsamples = 221\nvalue = [0, 0, 158, 0, 9, 0, 1, 0, 53]\nclass = labelOnTable"] ;
101 -> 125 ;
126 [label="acc_phone_y_freq_0.0_Hz_ws_40 <= 17.539\ngini = 0.131\nsamples = 170\nvalue = [0, 0, 158, 0, 0, 0, 0, 0, 12]\nclass = labelOnTable"] ;
125 -> 126 ;
127 [label="acc_phone_x_freq_1.9_Hz_ws_40 <= -0.008\ngini = 0.025\nsamples = 156\nvalue = [0, 0, 154, 0, 0, 0, 0, 0, 2]\nclass = labelOnTable"] ;
126 -> 127 ;
128 [label="gyr_phone_x_temp_std_ws_120 <= 0.0\ngini = 0.408\nsamples = 7\nvalue = [0, 0, 5, 0, 0, 0, 0, 0, 2]\nclass = labelOnTable"] ;
127 -> 128 ;
129 [label="gini = 0.0\nsamples = 4\nvalue = [0, 0, 4, 0, 0, 0, 0, 0, 0]\nclass = labelOnTable"] ;
128 -> 129 ;
130 [label="gini = 0.444\nsamples = 3\nvalue = [0, 0, 1, 0, 0, 0, 0, 0, 2]\nclass = undefined"] ;
128 -> 130 ;
131 [label="gini = 0.0\nsamples = 149\nvalue = [0, 0, 149, 0, 0, 0, 0, 0, 0]\nclass = labelOnTable"] ;
127 -> 131 ;
132 [label="acc_phone_x_freq_1.9_Hz_ws_40 <= -1.058\ngini = 0.408\nsamples = 14\nvalue = [0, 0, 4, 0, 0, 0, 0, 0, 10]\nclass = undefined"] ;
126 -> 132 ;
133 [label="gini = 0.0\nsamples = 2\nvalue = [0, 0, 2, 0, 0, 0, 0, 0, 0]\nclass = labelOnTable"] ;
132 -> 133 ;
134 [label="mag_watch_z_freq_0.9_Hz_ws_40 <= 1.802\ngini = 0.278\nsamples = 12\nvalue = [0, 0, 2, 0, 0, 0, 0, 0, 10]\nclass = undefined"] ;
132 -> 134 ;
135 [label="gini = 0.0\nsamples = 10\nvalue = [0, 0, 0, 0, 0, 0, 0, 0, 10]\nclass = undefined"] ;
134 -> 135 ;
136 [label="gini = 0.0\nsamples = 2\nvalue = [0, 0, 2, 0, 0, 0, 0, 0, 0]\nclass = labelOnTable"] ;
134 -> 136 ;
137 [label="acc_phone_x_freq_1.9_Hz_ws_40 <= -2.741\ngini = 0.322\nsamples = 51\nvalue = [0, 0, 0, 0, 9, 0, 1, 0, 41]\nclass = undefined"] ;
125 -> 137 ;
138 [label="press_phone_pressure_temp_mean_ws_120 <= 1029.262\ngini = 0.198\nsamples = 9\nvalue = [0, 0, 0, 0, 8, 0, 1, 0, 0]\nclass = labelSitting"] ;
137 -> 138 ;
139 [label="gini = 0.5\nsamples = 2\nvalue = [0, 0, 0, 0, 1, 0, 1, 0, 0]\nclass = labelSitting"] ;
138 -> 139 ;
140 [label="gini = 0.0\nsamples = 7\nvalue = [0, 0, 0, 0, 7, 0, 0, 0, 0]\nclass = labelSitting"] ;
138 -> 140 ;
141 [label="mag_watch_z_freq_0.9_Hz_ws_40 <= 63.121\ngini = 0.046\nsamples = 42\nvalue = [0, 0, 0, 0, 1, 0, 0, 0, 41]\nclass = undefined"] ;
137 -> 141 ;
142 [label="gini = 0.0\nsamples = 40\nvalue = [0, 0, 0, 0, 0, 0, 0, 0, 40]\nclass = undefined"] ;
141 -> 142 ;
143 [label="gini = 0.5\nsamples = 2\nvalue = [0, 0, 0, 0, 1, 0, 0, 0, 1]\nclass = labelSitting"] ;
141 -> 143 ;
144 [label="gyr_phone_x_temp_std_ws_120 <= 1.123\ngini = 0.551\nsamples = 455\nvalue = [0, 0, 0, 74, 0, 10, 282, 0, 89]\nclass = labelWalking"] ;
0 -> 144 [labeldistance=2.5, labelangle=-45, headlabel="False"] ;
145 [label="press_phone_pressure_temp_mean_ws_120 <= 1028.723\ngini = 0.416\nsamples = 384\nvalue = [0, 0, 0, 10, 0, 10, 281, 0, 83]\nclass = labelWalking"] ;
144 -> 145 ;
146 [label="acc_phone_y_freq_0.0_Hz_ws_40 <= 391.491\ngini = 0.577\nsamples = 208\nvalue = [0, 0, 0, 10, 0, 10, 109, 0, 79]\nclass = labelWalking"] ;
145 -> 146 ;
147 [label="acc_phone_y_freq_0.0_Hz_ws_40 <= -339.183\ngini = 0.399\nsamples = 92\nvalue = [0, 0, 0, 10, 0, 9, 3, 0, 70]\nclass = undefined"] ;
146 -> 147 ;
148 [label="gini = 0.0\nsamples = 47\nvalue = [0, 0, 0, 0, 0, 0, 0, 0, 47]\nclass = undefined"] ;
147 -> 148 ;
149 [label="acc_phone_y_freq_0.0_Hz_ws_40 <= -288.36\ngini = 0.645\nsamples = 45\nvalue = [0, 0, 0, 10, 0, 9, 3, 0, 23]\nclass = undefined"] ;
147 -> 149 ;
150 [label="gini = 0.0\nsamples = 10\nvalue = [0, 0, 0, 10, 0, 0, 0, 0, 0]\nclass = labelRunning"] ;
149 -> 150 ;
151 [label="gyr_phone_y_freq_1.0_Hz_ws_40 <= 4.429\ngini = 0.495\nsamples = 35\nvalue = [0, 0, 0, 0, 0, 9, 3, 0, 23]\nclass = undefined"] ;
149 -> 151 ;
152 [label="gyr_watch_y_freq_weighted <= -0.526\ngini = 0.404\nsamples = 32\nvalue = [0, 0, 0, 0, 0, 9, 0, 0, 23]\nclass = undefined"] ;
151 -> 152 ;
153 [label="press_phone_pressure_temp_mean_ws_120 <= 1011.791\ngini = 0.408\nsamples = 7\nvalue = [0, 0, 0, 0, 0, 5, 0, 0, 2]\nclass = labelStanding"] ;
152 -> 153 ;
154 [label="gini = 0.0\nsamples = 2\nvalue = [0, 0, 0, 0, 0, 0, 0, 0, 2]\nclass = undefined"] ;
153 -> 154 ;
155 [label="gini = 0.0\nsamples = 5\nvalue = [0, 0, 0, 0, 0, 5, 0, 0, 0]\nclass = labelStanding"] ;
153 -> 155 ;
156 [label="press_phone_pressure_temp_mean_ws_120 <= 1013.091\ngini = 0.269\nsamples = 25\nvalue = [0, 0, 0, 0, 0, 4, 0, 0, 21]\nclass = undefined"] ;
152 -> 156 ;
157 [label="gini = 0.0\nsamples = 16\nvalue = [0, 0, 0, 0, 0, 0, 0, 0, 16]\nclass = undefined"] ;
156 -> 157 ;
158 [label="press_phone_pressure_temp_mean_ws_120 <= 1020.852\ngini = 0.494\nsamples = 9\nvalue = [0, 0, 0, 0, 0, 4, 0, 0, 5]\nclass = undefined"] ;
156 -> 158 ;
159 [label="gini = 0.0\nsamples = 4\nvalue = [0, 0, 0, 0, 0, 4, 0, 0, 0]\nclass = labelStanding"] ;
158 -> 159 ;
160 [label="gini = 0.0\nsamples = 5\nvalue = [0, 0, 0, 0, 0, 0, 0, 0, 5]\nclass = undefined"] ;
158 -> 160 ;
161 [label="gini = 0.0\nsamples = 3\nvalue = [0, 0, 0, 0, 0, 0, 3, 0, 0]\nclass = labelWalking"] ;
151 -> 161 ;
162 [label="press_phone_pressure_temp_mean_ws_120 <= 1012.757\ngini = 0.159\nsamples = 116\nvalue = [0, 0, 0, 0, 0, 1, 106, 0, 9]\nclass = labelWalking"] ;
146 -> 162 ;
163 [label="gini = 0.0\nsamples = 97\nvalue = [0, 0, 0, 0, 0, 0, 97, 0, 0]\nclass = labelWalking"] ;
162 -> 163 ;
164 [label="press_phone_pressure_temp_mean_ws_120 <= 1013.184\ngini = 0.548\nsamples = 19\nvalue = [0, 0, 0, 0, 0, 1, 9, 0, 9]\nclass = labelWalking"] ;
162 -> 164 ;
165 [label="gini = 0.0\nsamples = 9\nvalue = [0, 0, 0, 0, 0, 0, 0, 0, 9]\nclass = undefined"] ;
164 -> 165 ;
166 [label="mag_watch_y_pse <= 0.373\ngini = 0.18\nsamples = 10\nvalue = [0, 0, 0, 0, 0, 1, 9, 0, 0]\nclass = labelWalking"] ;
164 -> 166 ;
167 [label="gini = 0.5\nsamples = 2\nvalue = [0, 0, 0, 0, 0, 1, 1, 0, 0]\nclass = labelStanding"] ;
166 -> 167 ;
168 [label="gini = 0.0\nsamples = 8\nvalue = [0, 0, 0, 0, 0, 0, 8, 0, 0]\nclass = labelWalking"] ;
166 -> 168 ;
169 [label="acc_watch_y_freq_0.5_Hz_ws_40 <= -5.993\ngini = 0.044\nsamples = 176\nvalue = [0, 0, 0, 0, 0, 0, 172, 0, 4]\nclass = labelWalking"] ;
145 -> 169 ;
170 [label="gyr_phone_y_freq_1.0_Hz_ws_40 <= -1.205\ngini = 0.375\nsamples = 4\nvalue = [0, 0, 0, 0, 0, 0, 1, 0, 3]\nclass = undefined"] ;
169 -> 170 ;
171 [label="gini = 0.5\nsamples = 2\nvalue = [0, 0, 0, 0, 0, 0, 1, 0, 1]\nclass = labelWalking"] ;
170 -> 171 ;
172 [label="gini = 0.0\nsamples = 2\nvalue = [0, 0, 0, 0, 0, 0, 0, 0, 2]\nclass = undefined"] ;
170 -> 172 ;
173 [label="acc_watch_y_freq_0.5_Hz_ws_40 <= 7.197\ngini = 0.012\nsamples = 172\nvalue = [0, 0, 0, 0, 0, 0, 171, 0, 1]\nclass = labelWalking"] ;
169 -> 173 ;
174 [label="gini = 0.0\nsamples = 170\nvalue = [0, 0, 0, 0, 0, 0, 170, 0, 0]\nclass = labelWalking"] ;
173 -> 174 ;
175 [label="gini = 0.5\nsamples = 2\nvalue = [0, 0, 0, 0, 0, 0, 1, 0, 1]\nclass = labelWalking"] ;
173 -> 175 ;
176 [label="acc_phone_y_freq_0.0_Hz_ws_40 <= -171.081\ngini = 0.18\nsamples = 71\nvalue = [0, 0, 0, 64, 0, 0, 1, 0, 6]\nclass = labelRunning"] ;
144 -> 176 ;
177 [label="gini = 0.0\nsamples = 64\nvalue = [0, 0, 0, 64, 0, 0, 0, 0, 0]\nclass = labelRunning"] ;
176 -> 177 ;
178 [label="acc_watch_y_freq_0.5_Hz_ws_40 <= -0.417\ngini = 0.245\nsamples = 7\nvalue = [0, 0, 0, 0, 0, 0, 1, 0, 6]\nclass = undefined"] ;
176 -> 178 ;
179 [label="gini = 0.5\nsamples = 2\nvalue = [0, 0, 0, 0, 0, 0, 1, 0, 1]\nclass = labelWalking"] ;
178 -> 179 ;
180 [label="gini = 0.0\nsamples = 5\nvalue = [0, 0, 0, 0, 0, 0, 0, 0, 5]\nclass = undefined"] ;
178 -> 180 ;
}